#pragma once
#include <cstdarg>
namespace Eloquent {
    namespace ML {
        namespace Port {
            class RandomForest {
                public:
                    /**
                    * Predict class for features vector
                    */
                    int predict(float *x) {
                        uint8_t votes[2] = { 0 };
                        // tree #1
                        if (x[61] <= 18.4950008392334) {
                            if (x[53] <= 60.26499938964844) {
                                votes[1] += 1;
                            }

                            else {
                                if (x[1] <= 17.11500072479248) {
                                    votes[1] += 1;
                                }

                                else {
                                    votes[0] += 1;
                                }
                            }
                        }

                        else {
                            if (x[55] <= 45.84000015258789) {
                                if (x[0] <= 16.75999927520752) {
                                    votes[0] += 1;
                                }

                                else {
                                    if (x[18] <= 134.5749969482422) {
                                        votes[1] += 1;
                                    }

                                    else {
                                        votes[0] += 1;
                                    }
                                }
                            }

                            else {
                                votes[1] += 1;
                            }
                        }

                        // tree #2
                        if (x[4] <= 24.269999504089355) {
                            if (x[19] <= 144.51000213623047) {
                                if (x[1] <= 17.075000762939453) {
                                    votes[1] += 1;
                                }

                                else {
                                    if (x[22] <= 166.55500030517578) {
                                        votes[1] += 1;
                                    }

                                    else {
                                        if (x[11] <= 68.50499725341797) {
                                            if (x[60] <= 20.739999771118164) {
                                                votes[0] += 1;
                                            }

                                            else {
                                                votes[1] += 1;
                                            }
                                        }

                                        else {
                                            votes[0] += 1;
                                        }
                                    }
                                }
                            }

                            else {
                                votes[0] += 1;
                            }
                        }

                        else {
                            votes[0] += 1;
                        }

                        // tree #3
                        if (x[39] <= 182.02000427246094) {
                            if (x[40] <= 175.62999725341797) {
                                votes[1] += 1;
                            }

                            else {
                                if (x[57] <= 33.19000053405762) {
                                    votes[0] += 1;
                                }

                                else {
                                    votes[1] += 1;
                                }
                            }
                        }

                        else {
                            if (x[16] <= 113.32500076293945) {
                                votes[1] += 1;
                            }

                            else {
                                if (x[58] <= 28.630000114440918) {
                                    votes[0] += 1;
                                }

                                else {
                                    votes[1] += 1;
                                }
                            }
                        }

                        // tree #4
                        if (x[9] <= 52.53499984741211) {
                            votes[1] += 1;
                        }

                        else {
                            if (x[22] <= 167.76499938964844) {
                                if (x[1] <= 17.24000072479248) {
                                    votes[1] += 1;
                                }

                                else {
                                    votes[0] += 1;
                                }
                            }

                            else {
                                if (x[31] <= 209.3800048828125) {
                                    votes[0] += 1;
                                }

                                else {
                                    if (x[30] <= 208.42499542236328) {
                                        votes[1] += 1;
                                    }

                                    else {
                                        votes[0] += 1;
                                    }
                                }
                            }
                        }

                        // tree #5
                        if (x[15] <= 104.91500091552734) {
                            votes[1] += 1;
                        }

                        else {
                            if (x[8] <= 45.619998931884766) {
                                votes[0] += 1;
                            }

                            else {
                                if (x[3] <= 20.640000343322754) {
                                    votes[0] += 1;
                                }

                                else {
                                    votes[1] += 1;
                                }
                            }
                        }

                        // tree #6
                        if (x[11] <= 68.83499908447266) {
                            if (x[63] <= 16.59999942779541) {
                                votes[1] += 1;
                            }

                            else {
                                if (x[60] <= 20.489999771118164) {
                                    votes[1] += 1;
                                }

                                else {
                                    votes[0] += 1;
                                }
                            }
                        }

                        else {
                            if (x[15] <= 105.42499923706055) {
                                votes[1] += 1;
                            }

                            else {
                                if (x[55] <= 45.84000015258789) {
                                    votes[0] += 1;
                                }

                                else {
                                    votes[1] += 1;
                                }
                            }
                        }

                        // tree #7
                        if (x[0] <= 16.920000076293945) {
                            if (x[16] <= 114.43000030517578) {
                                if (x[60] <= 21.140000343322754) {
                                    votes[1] += 1;
                                }

                                else {
                                    votes[0] += 1;
                                }
                            }

                            else {
                                if (x[4] <= 23.86500072479248) {
                                    votes[1] += 1;
                                }

                                else {
                                    if (x[52] <= 69.33000183105469) {
                                        votes[0] += 1;
                                    }

                                    else {
                                        votes[1] += 1;
                                    }
                                }
                            }
                        }

                        else {
                            votes[0] += 1;
                        }

                        // tree #8
                        if (x[12] <= 76.80500030517578) {
                            if (x[6] <= 33.35000038146973) {
                                votes[1] += 1;
                            }

                            else {
                                votes[0] += 1;
                            }
                        }

                        else {
                            if (x[6] <= 33.35000038146973) {
                                if (x[27] <= 201.38499450683594) {
                                    if (x[14] <= 95.93999862670898) {
                                        votes[1] += 1;
                                    }

                                    else {
                                        if (x[30] <= 207.42999267578125) {
                                            votes[0] += 1;
                                        }

                                        else {
                                            votes[1] += 1;
                                        }
                                    }
                                }

                                else {
                                    votes[0] += 1;
                                }
                            }

                            else {
                                if (x[46] <= 125.71000289916992) {
                                    votes[0] += 1;
                                }

                                else {
                                    votes[1] += 1;
                                }
                            }
                        }

                        // tree #9
                        if (x[57] <= 32.8700008392334) {
                            votes[1] += 1;
                        }

                        else {
                            if (x[61] <= 18.4950008392334) {
                                votes[1] += 1;
                            }

                            else {
                                if (x[29] <= 206.5199966430664) {
                                    if (x[7] <= 38.93000030517578) {
                                        if (x[27] <= 200.90999603271484) {
                                            votes[1] += 1;
                                        }

                                        else {
                                            votes[0] += 1;
                                        }
                                    }

                                    else {
                                        votes[0] += 1;
                                    }
                                }

                                else {
                                    votes[1] += 1;
                                }
                            }
                        }

                        // tree #10
                        if (x[19] <= 142.4499969482422) {
                            votes[1] += 1;
                        }

                        else {
                            if (x[15] <= 104.91500091552734) {
                                votes[1] += 1;
                            }

                            else {
                                if (x[44] <= 140.73500061035156) {
                                    if (x[40] <= 175.62999725341797) {
                                        votes[1] += 1;
                                    }

                                    else {
                                        votes[0] += 1;
                                    }
                                }

                                else {
                                    votes[0] += 1;
                                }
                            }
                        }

                        // tree #11
                        if (x[12] <= 77.54999923706055) {
                            if (x[45] <= 135.85999298095703) {
                                votes[1] += 1;
                            }

                            else {
                                votes[0] += 1;
                            }
                        }

                        else {
                            if (x[29] <= 206.5199966430664) {
                                if (x[31] <= 210.3800048828125) {
                                    votes[0] += 1;
                                }

                                else {
                                    votes[1] += 1;
                                }
                            }

                            else {
                                votes[1] += 1;
                            }
                        }

                        // tree #12
                        if (x[7] <= 39.114999771118164) {
                            votes[1] += 1;
                        }

                        else {
                            if (x[55] <= 45.84000015258789) {
                                if (x[44] <= 140.73500061035156) {
                                    if (x[5] <= 28.360000610351562) {
                                        votes[1] += 1;
                                    }

                                    else {
                                        votes[0] += 1;
                                    }
                                }

                                else {
                                    votes[0] += 1;
                                }
                            }

                            else {
                                votes[1] += 1;
                            }
                        }

                        // tree #13
                        if (x[15] <= 105.42499923706055) {
                            votes[1] += 1;
                        }

                        else {
                            if (x[46] <= 123.31999969482422) {
                                votes[1] += 1;
                            }

                            else {
                                if (x[57] <= 33.670000076293945) {
                                    votes[0] += 1;
                                }

                                else {
                                    if (x[59] <= 24.155000686645508) {
                                        votes[0] += 1;
                                    }

                                    else {
                                        votes[1] += 1;
                                    }
                                }
                            }
                        }

                        // tree #14
                        if (x[4] <= 24.329999923706055) {
                            if (x[9] <= 52.53499984741211) {
                                if (x[16] <= 114.98500061035156) {
                                    votes[1] += 1;
                                }

                                else {
                                    if (x[5] <= 28.225000381469727) {
                                        votes[1] += 1;
                                    }

                                    else {
                                        votes[0] += 1;
                                    }
                                }
                            }

                            else {
                                if (x[32] <= 208.3800048828125) {
                                    votes[0] += 1;
                                }

                                else {
                                    if (x[11] <= 69.16500091552734) {
                                        votes[1] += 1;
                                    }

                                    else {
                                        votes[0] += 1;
                                    }
                                }
                            }
                        }

                        else {
                            votes[0] += 1;
                        }

                        // tree #15
                        if (x[49] <= 95.93999862670898) {
                            if (x[4] <= 23.980000495910645) {
                                votes[1] += 1;
                            }

                            else {
                                if (x[3] <= 20.59000015258789) {
                                    votes[0] += 1;
                                }

                                else {
                                    if (x[7] <= 38.83500099182129) {
                                        votes[1] += 1;
                                    }

                                    else {
                                        votes[0] += 1;
                                    }
                                }
                            }
                        }

                        else {
                            if (x[7] <= 38.7450008392334) {
                                votes[1] += 1;
                            }

                            else {
                                votes[0] += 1;
                            }
                        }

                        // tree #16
                        if (x[18] <= 135.2199935913086) {
                            if (x[1] <= 17.075000762939453) {
                                if (x[3] <= 21.69499969482422) {
                                    votes[1] += 1;
                                }

                                else {
                                    votes[0] += 1;
                                }
                            }

                            else {
                                if (x[41] <= 169.38499450683594) {
                                    if (x[16] <= 114.43000030517578) {
                                        votes[1] += 1;
                                    }

                                    else {
                                        votes[0] += 1;
                                    }
                                }

                                else {
                                    votes[1] += 1;
                                }
                            }
                        }

                        else {
                            votes[0] += 1;
                        }

                        // tree #17
                        if (x[23] <= 175.20999908447266) {
                            if (x[24] <= 183.7750015258789) {
                                votes[1] += 1;
                            }

                            else {
                                votes[0] += 1;
                            }
                        }

                        else {
                            if (x[9] <= 52.40999984741211) {
                                votes[1] += 1;
                            }

                            else {
                                votes[0] += 1;
                            }
                        }

                        // tree #18
                        if (x[19] <= 144.51000213623047) {
                            if (x[15] <= 105.93000030517578) {
                                if (x[45] <= 133.93000030517578) {
                                    votes[1] += 1;
                                }

                                else {
                                    if (x[29] <= 205.53499603271484) {
                                        votes[0] += 1;
                                    }

                                    else {
                                        votes[1] += 1;
                                    }
                                }
                            }

                            else {
                                votes[0] += 1;
                            }
                        }

                        else {
                            votes[0] += 1;
                        }

                        // tree #19
                        if (x[48] <= 103.90500259399414) {
                            votes[1] += 1;
                        }

                        else {
                            if (x[47] <= 113.875) {
                                if (x[46] <= 122.42499923706055) {
                                    votes[0] += 1;
                                }

                                else {
                                    votes[1] += 1;
                                }
                            }

                            else {
                                if (x[49] <= 95.47999954223633) {
                                    votes[0] += 1;
                                }

                                else {
                                    if (x[39] <= 182.9000015258789) {
                                        votes[1] += 1;
                                    }

                                    else {
                                        if (x[41] <= 170.19499969482422) {
                                            votes[0] += 1;
                                        }

                                        else {
                                            votes[1] += 1;
                                        }
                                    }
                                }
                            }
                        }

                        // tree #20
                        if (x[19] <= 141.76499938964844) {
                            votes[1] += 1;
                        }

                        else {
                            if (x[55] <= 45.84000015258789) {
                                if (x[57] <= 32.8700008392334) {
                                    votes[1] += 1;
                                }

                                else {
                                    if (x[9] <= 52.53499984741211) {
                                        if (x[0] <= 16.679999351501465) {
                                            votes[0] += 1;
                                        }

                                        else {
                                            if (x[33] <= 208.92499542236328) {
                                                votes[1] += 1;
                                            }

                                            else {
                                                votes[0] += 1;
                                            }
                                        }
                                    }

                                    else {
                                        votes[0] += 1;
                                    }
                                }
                            }

                            else {
                                votes[1] += 1;
                            }
                        }

                        // tree #21
                        if (x[0] <= 16.519999504089355) {
                            if (x[10] <= 60.55500030517578) {
                                votes[1] += 1;
                            }

                            else {
                                if (x[29] <= 206.5199966430664) {
                                    votes[0] += 1;
                                }

                                else {
                                    votes[1] += 1;
                                }
                            }
                        }

                        else {
                            if (x[29] <= 206.5199966430664) {
                                if (x[15] <= 104.91500091552734) {
                                    votes[1] += 1;
                                }

                                else {
                                    votes[0] += 1;
                                }
                            }

                            else {
                                votes[1] += 1;
                            }
                        }

                        // tree #22
                        if (x[53] <= 60.26499938964844) {
                            if (x[45] <= 133.93000030517578) {
                                votes[1] += 1;
                            }

                            else {
                                votes[0] += 1;
                            }
                        }

                        else {
                            if (x[53] <= 60.845001220703125) {
                                if (x[49] <= 96.39999771118164) {
                                    votes[0] += 1;
                                }

                                else {
                                    if (x[61] <= 18.405000686645508) {
                                        votes[0] += 1;
                                    }

                                    else {
                                        votes[1] += 1;
                                    }
                                }
                            }

                            else {
                                if (x[35] <= 202.22999572753906) {
                                    votes[0] += 1;
                                }

                                else {
                                    votes[1] += 1;
                                }
                            }
                        }

                        // tree #23
                        if (x[12] <= 77.17499923706055) {
                            if (x[32] <= 206.3800048828125) {
                                if (x[36] <= 195.66000366210938) {
                                    votes[0] += 1;
                                }

                                else {
                                    votes[1] += 1;
                                }
                            }

                            else {
                                votes[1] += 1;
                            }
                        }

                        else {
                            if (x[6] <= 33.35000038146973) {
                                if (x[43] <= 151.6699981689453) {
                                    if (x[23] <= 176.89500427246094) {
                                        votes[0] += 1;
                                    }

                                    else {
                                        votes[1] += 1;
                                    }
                                }

                                else {
                                    votes[1] += 1;
                                }
                            }

                            else {
                                if (x[37] <= 196.76000213623047) {
                                    votes[0] += 1;
                                }

                                else {
                                    votes[1] += 1;
                                }
                            }
                        }

                        // tree #24
                        if (x[6] <= 33.35000038146973) {
                            if (x[59] <= 24.329999923706055) {
                                if (x[20] <= 153.49500274658203) {
                                    if (x[22] <= 167.76499938964844) {
                                        votes[1] += 1;
                                    }

                                    else {
                                        if (x[27] <= 199.95499420166016) {
                                            if (x[41] <= 167.76499938964844) {
                                                votes[1] += 1;
                                            }

                                            else {
                                                votes[0] += 1;
                                            }
                                        }

                                        else {
                                            votes[1] += 1;
                                        }
                                    }
                                }

                                else {
                                    if (x[33] <= 208.92499542236328) {
                                        votes[1] += 1;
                                    }

                                    else {
                                        votes[0] += 1;
                                    }
                                }
                            }

                            else {
                                votes[0] += 1;
                            }
                        }

                        else {
                            votes[0] += 1;
                        }

                        // tree #25
                        if (x[4] <= 23.920000076293945) {
                            votes[1] += 1;
                        }

                        else {
                            if (x[41] <= 168.5749969482422) {
                                if (x[27] <= 199.95499420166016) {
                                    if (x[1] <= 17.160000801086426) {
                                        votes[1] += 1;
                                    }

                                    else {
                                        votes[0] += 1;
                                    }
                                }

                                else {
                                    votes[1] += 1;
                                }
                            }

                            else {
                                if (x[14] <= 96.39999771118164) {
                                    votes[1] += 1;
                                }

                                else {
                                    votes[0] += 1;
                                }
                            }
                        }

                        // tree #26
                        if (x[2] <= 18.225000381469727) {
                            votes[0] += 1;
                        }

                        else {
                            if (x[9] <= 52.78999900817871) {
                                if (x[44] <= 143.13499450683594) {
                                    votes[1] += 1;
                                }

                                else {
                                    if (x[46] <= 123.31999969482422) {
                                        votes[0] += 1;
                                    }

                                    else {
                                        votes[1] += 1;
                                    }
                                }
                            }

                            else {
                                if (x[14] <= 95.47999954223633) {
                                    votes[1] += 1;
                                }

                                else {
                                    votes[0] += 1;
                                }
                            }
                        }

                        // tree #27
                        if (x[9] <= 52.53499984741211) {
                            if (x[19] <= 144.51000213623047) {
                                if (x[46] <= 122.7249984741211) {
                                    if (x[9] <= 51.525001525878906) {
                                        votes[1] += 1;
                                    }

                                    else {
                                        votes[0] += 1;
                                    }
                                }

                                else {
                                    votes[1] += 1;
                                }
                            }

                            else {
                                votes[0] += 1;
                            }
                        }

                        else {
                            if (x[14] <= 95.93999862670898) {
                                if (x[48] <= 105.67499923706055) {
                                    if (x[61] <= 18.4950008392334) {
                                        votes[1] += 1;
                                    }

                                    else {
                                        votes[0] += 1;
                                    }
                                }

                                else {
                                    votes[1] += 1;
                                }
                            }

                            else {
                                votes[0] += 1;
                            }
                        }

                        // tree #28
                        if (x[22] <= 167.76499938964844) {
                            if (x[13] <= 85.37000274658203) {
                                if (x[41] <= 162.91500091552734) {
                                    votes[1] += 1;
                                }

                                else {
                                    votes[0] += 1;
                                }
                            }

                            else {
                                if (x[6] <= 33.35000038146973) {
                                    votes[1] += 1;
                                }

                                else {
                                    if (x[54] <= 53.03999900817871) {
                                        votes[0] += 1;
                                    }

                                    else {
                                        votes[1] += 1;
                                    }
                                }
                            }
                        }

                        else {
                            if (x[54] <= 52.78999900817871) {
                                if (x[15] <= 105.67499923706055) {
                                    votes[1] += 1;
                                }

                                else {
                                    votes[0] += 1;
                                }
                            }

                            else {
                                votes[0] += 1;
                            }
                        }

                        // tree #29
                        if (x[12] <= 77.17499923706055) {
                            if (x[10] <= 60.26499938964844) {
                                votes[1] += 1;
                            }

                            else {
                                if (x[35] <= 200.7699966430664) {
                                    votes[1] += 1;
                                }

                                else {
                                    votes[0] += 1;
                                }
                            }
                        }

                        else {
                            if (x[52] <= 69.49500274658203) {
                                if (x[7] <= 38.7450008392334) {
                                    votes[1] += 1;
                                }

                                else {
                                    votes[0] += 1;
                                }
                            }

                            else {
                                if (x[11] <= 69.0) {
                                    votes[1] += 1;
                                }

                                else {
                                    votes[0] += 1;
                                }
                            }
                        }

                        // tree #30
                        if (x[59] <= 23.80500030517578) {
                            if (x[24] <= 181.1449966430664) {
                                votes[1] += 1;
                            }

                            else {
                                votes[0] += 1;
                            }
                        }

                        else {
                            if (x[6] <= 33.35000038146973) {
                                if (x[4] <= 24.269999504089355) {
                                    votes[1] += 1;
                                }

                                else {
                                    votes[0] += 1;
                                }
                            }

                            else {
                                if (x[29] <= 207.01499938964844) {
                                    votes[0] += 1;
                                }

                                else {
                                    votes[1] += 1;
                                }
                            }
                        }

                        // return argmax of votes
                        uint8_t classIdx = 0;
                        float maxVotes = votes[0];

                        for (uint8_t i = 1; i < 2; i++) {
                            if (votes[i] > maxVotes) {
                                classIdx = i;
                                maxVotes = votes[i];
                            }
                        }

                        return classIdx;
                    }

                    /**
                    * Predict readable class name
                    */
                    const char* predictLabel(float *x) {
                        return idxToLabel(predict(x));
                    }

                    /**
                    * Convert class idx to readable name
                    */
                    const char* idxToLabel(uint8_t classIdx) {
                        switch (classIdx) {
                            case 0:
                            return "bye";
                            case 1:
                            return "hello";
                            default:
                            return "Houston we have a problem";
                        }
                    }

                protected:
                };
            }
        }
    }